<?xml version="1.0"?>
<opencv_storage>
<cascade>
  <stageType>BOOST</stageType>
  <featureType>HAAR</featureType>
  <height>40</height>
  <width>20</width>
  <stageParams>
    <boostType>GAB</boostType>
    <minHitRate>9.9500000476837158e-01</minHitRate>
    <maxFalseAlarm>5.0000000000000000e-01</maxFalseAlarm>
    <weightTrimRate>9.4999999999999996e-01</weightTrimRate>
    <maxDepth>1</maxDepth>
    <maxWeakCount>100</maxWeakCount></stageParams>
  <featureParams>
    <maxCatCount>0</maxCatCount>
    <featSize>1</featSize>
    <mode>BASIC</mode></featureParams>
  <stageNum>9</stageNum>
  <stages>
    <!-- stage 0 -->
    <_>
      <maxWeakCount>2</maxWeakCount>
      <stageThreshold>-9.8503626883029938e-02</stageThreshold>
      <weakClassifiers>
        <_>
          <internalNodes>
            0 -1 14 -1.5054370276629925e-02</internalNodes>
          <leafValues>
            7.7777779102325439e-01 -8.0000001192092896e-01</leafValues></_>
        <_>
          <internalNodes>
            0 -1 5 -2.4028297513723373e-02</internalNodes>
          <leafValues>
            7.3549330234527588e-01 -8.7628138065338135e-01</leafValues></_></weakClassifiers></_>
    <!-- stage 1 -->
    <_>
      <maxWeakCount>3</maxWeakCount>
      <stageThreshold>-6.9493281841278076e-01</stageThreshold>
      <weakClassifiers>
        <_>
          <internalNodes>
            0 -1 6 -8.9029923081398010e-02</internalNodes>
          <leafValues>
            8.9473682641983032e-01 -6.8181818723678589e-01</leafValues></_>
        <_>
          <internalNodes>
            0 -1 18 2.3637269623577595e-03</internalNodes>
          <leafValues>
            -7.6825523376464844e-01 6.6911929845809937e-01</leafValues></_>
        <_>
          <internalNodes>
            0 -1 4 -3.6301560699939728e-02</internalNodes>
          <leafValues>
            7.8918647766113281e-01 -6.8223392963409424e-01</leafValues></_></weakClassifiers></_>
    <!-- stage 2 -->
    <_>
      <maxWeakCount>3</maxWeakCount>
      <stageThreshold>-7.8974694013595581e-01</stageThreshold>
      <weakClassifiers>
        <_>
          <internalNodes>
            0 -1 16 3.3567506819963455e-02</internalNodes>
          <leafValues>
            -7.2839504480361938e-01 6.1538463830947876e-01</leafValues></_>
        <_>
          <internalNodes>
            0 -1 9 2.2055301815271378e-03</internalNodes>
          <leafValues>
            -5.7778376340866089e-01 9.1902863979339600e-01</leafValues></_>
        <_>
          <internalNodes>
            0 -1 12 1.5676142647862434e-02</internalNodes>
          <leafValues>
            -8.2734775543212891e-01 6.4782643318176270e-01</leafValues></_></weakClassifiers></_>
    <!-- stage 3 -->
    <_>
      <maxWeakCount>2</maxWeakCount>
      <stageThreshold>-2.8177121281623840e-01</stageThreshold>
      <weakClassifiers>
        <_>
          <internalNodes>
            0 -1 22 -4.9514723941683769e-03</internalNodes>
          <leafValues>
            4.4444444775581360e-01 -8.3098590373992920e-01</leafValues></_>
        <_>
          <internalNodes>
            0 -1 1 -1.0138884186744690e-02</internalNodes>
          <leafValues>
            7.4670821428298950e-01 -7.2621566057205200e-01</leafValues></_></weakClassifiers></_>
    <!-- stage 4 -->
    <_>
      <maxWeakCount>3</maxWeakCount>
      <stageThreshold>-7.2862613201141357e-01</stageThreshold>
      <weakClassifiers>
        <_>
          <internalNodes>
            0 -1 19 7.3639536276459694e-03</internalNodes>
          <leafValues>
            -7.8666669130325317e-01 5.0000000000000000e-01</leafValues></_>
        <_>
          <internalNodes>
            0 -1 17 3.0373785644769669e-02</internalNodes>
          <leafValues>
            -5.6778591871261597e-01 8.7479114532470703e-01</leafValues></_>
        <_>
          <internalNodes>
            0 -1 11 4.9539543688297272e-03</internalNodes>
          <leafValues>
            -6.6084015369415283e-01 7.8150290250778198e-01</leafValues></_></weakClassifiers></_>
    <!-- stage 5 -->
    <_>
      <maxWeakCount>2</maxWeakCount>
      <stageThreshold>-4.8670610785484314e-01</stageThreshold>
      <weakClassifiers>
        <_>
          <internalNodes>
            0 -1 13 1.6832316759973764e-03</internalNodes>
          <leafValues>
            -8.9999997615814209e-01 2.3404255509376526e-01</leafValues></_>
        <_>
          <internalNodes>
            0 -1 2 -1.1794557794928551e-03</internalNodes>
          <leafValues>
            5.5276316404342651e-01 -7.2074866294860840e-01</leafValues></_></weakClassifiers></_>
    <!-- stage 6 -->
    <_>
      <maxWeakCount>3</maxWeakCount>
      <stageThreshold>-6.5991902351379395e-01</stageThreshold>
      <weakClassifiers>
        <_>
          <internalNodes>
            0 -1 15 7.9628653824329376e-02</internalNodes>
          <leafValues>
            -7.4358975887298584e-01 5.1724135875701904e-01</leafValues></_>
        <_>
          <internalNodes>
            0 -1 3 2.8339833021163940e-02</internalNodes>
          <leafValues>
            -5.3236979246139526e-01 8.3595234155654907e-01</leafValues></_>
        <_>
          <internalNodes>
            0 -1 10 -1.5071706846356392e-02</internalNodes>
          <leafValues>
            7.6071202754974365e-01 -7.5228166580200195e-01</leafValues></_></weakClassifiers></_>
    <!-- stage 7 -->
    <_>
      <maxWeakCount>4</maxWeakCount>
      <stageThreshold>-8.0880630016326904e-01</stageThreshold>
      <weakClassifiers>
        <_>
          <internalNodes>
            0 -1 7 3.1572762876749039e-02</internalNodes>
          <leafValues>
            -5.9574466943740845e-01 1.</leafValues></_>
        <_>
          <internalNodes>
            0 -1 23 -6.9503234699368477e-03</internalNodes>
          <leafValues>
            6.8835282325744629e-01 -4.9207898974418640e-01</leafValues></_>
        <_>
          <internalNodes>
            0 -1 20 3.9273318834602833e-03</internalNodes>
          <leafValues>
            -4.3658328056335449e-01 8.7911492586135864e-01</leafValues></_>
        <_>
          <internalNodes>
            0 -1 8 -3.0232158023864031e-03</internalNodes>
          <leafValues>
            7.8045606613159180e-01 -4.6483120322227478e-01</leafValues></_></weakClassifiers></_>
    <!-- stage 8 -->
    <_>
      <maxWeakCount>3</maxWeakCount>
      <stageThreshold>-3.7419888377189636e-01</stageThreshold>
      <weakClassifiers>
        <_>
          <internalNodes>
            0 -1 24 1.3672785833477974e-02</internalNodes>
          <leafValues>
            -6.6292136907577515e-01 8.8888889551162720e-01</leafValues></_>
        <_>
          <internalNodes>
            0 -1 0 8.7673850357532501e-02</internalNodes>
          <leafValues>
            -4.4818758964538574e-01 1.</leafValues></_>
        <_>
          <internalNodes>
            0 -1 21 2.5934758014045656e-05</internalNodes>
          <leafValues>
            -5.0001144409179688e-01 7.3691004514694214e-01</leafValues></_></weakClassifiers></_></stages>
  <features>
    <_>
      <rects>
        <_>
          0 2 14 18 -1.</_>
        <_>
          0 2 7 9 2.</_>
        <_>
          7 11 7 9 2.</_></rects>
      <tilted>0</tilted></_>
    <_>
      <rects>
        <_>
          0 23 4 14 -1.</_>
        <_>
          0 30 4 7 2.</_></rects>
      <tilted>0</tilted></_>
    <_>
      <rects>
        <_>
          0 34 4 4 -1.</_>
        <_>
          2 34 2 4 2.</_></rects>
      <tilted>0</tilted></_>
    <_>
      <rects>
        <_>
          1 5 12 8 -1.</_>
        <_>
          1 5 6 4 2.</_>
        <_>
          7 9 6 4 2.</_></rects>
      <tilted>0</tilted></_>
    <_>
      <rects>
        <_>
          1 6 10 16 -1.</_>
        <_>
          1 14 10 8 2.</_></rects>
      <tilted>0</tilted></_>
    <_>
      <rects>
        <_>
          1 19 8 15 -1.</_>
        <_>
          5 19 4 15 2.</_></rects>
      <tilted>0</tilted></_>
    <_>
      <rects>
        <_>
          2 1 18 8 -1.</_>
        <_>
          8 1 6 8 3.</_></rects>
      <tilted>0</tilted></_>
    <_>
      <rects>
        <_>
          2 6 8 14 -1.</_>
        <_>
          2 6 4 7 2.</_>
        <_>
          6 13 4 7 2.</_></rects>
      <tilted>0</tilted></_>
    <_>
      <rects>
        <_>
          3 15 3 19 -1.</_>
        <_>
          4 15 1 19 3.</_></rects>
      <tilted>0</tilted></_>
    <_>
      <rects>
        <_>
          4 4 2 8 -1.</_>
        <_>
          4 4 1 4 2.</_>
        <_>
          5 8 1 4 2.</_></rects>
      <tilted>0</tilted></_>
    <_>
      <rects>
        <_>
          4 8 4 22 -1.</_>
        <_>
          6 8 2 22 2.</_></rects>
      <tilted>0</tilted></_>
    <_>
      <rects>
        <_>
          4 14 6 10 -1.</_>
        <_>
          4 14 3 5 2.</_>
        <_>
          7 19 3 5 2.</_></rects>
      <tilted>0</tilted></_>
    <_>
      <rects>
        <_>
          4 22 15 18 -1.</_>
        <_>
          4 31 15 9 2.</_></rects>
      <tilted>0</tilted></_>
    <_>
      <rects>
        <_>
          5 36 13 4 -1.</_>
        <_>
          5 38 13 2 2.</_></rects>
      <tilted>0</tilted></_>
    <_>
      <rects>
        <_>
          6 0 13 6 -1.</_>
        <_>
          6 3 13 3 2.</_></rects>
      <tilted>0</tilted></_>
    <_>
      <rects>
        <_>
          6 21 14 17 -1.</_>
        <_>
          13 21 7 17 2.</_></rects>
      <tilted>0</tilted></_>
    <_>
      <rects>
        <_>
          9 10 10 18 -1.</_>
        <_>
          9 10 5 9 2.</_>
        <_>
          14 19 5 9 2.</_></rects>
      <tilted>0</tilted></_>
    <_>
      <rects>
        <_>
          10 11 6 28 -1.</_>
        <_>
          10 11 3 14 2.</_>
        <_>
          13 25 3 14 2.</_></rects>
      <tilted>0</tilted></_>
    <_>
      <rects>
        <_>
          12 25 8 1 -1.</_>
        <_>
          16 25 4 1 2.</_></rects>
      <tilted>0</tilted></_>
    <_>
      <rects>
        <_>
          16 0 4 10 -1.</_>
        <_>
          18 0 2 10 2.</_></rects>
      <tilted>0</tilted></_>
    <_>
      <rects>
        <_>
          16 9 3 13 -1.</_>
        <_>
          17 9 1 13 3.</_></rects>
      <tilted>0</tilted></_>
    <_>
      <rects>
        <_>
          16 19 2 2 -1.</_>
        <_>
          16 19 1 1 2.</_>
        <_>
          17 20 1 1 2.</_></rects>
      <tilted>0</tilted></_>
    <_>
      <rects>
        <_>
          18 0 1 14 -1.</_>
        <_>
          18 7 1 7 2.</_></rects>
      <tilted>0</tilted></_>
    <_>
      <rects>
        <_>
          18 3 2 32 -1.</_>
        <_>
          18 3 1 16 2.</_>
        <_>
          19 19 1 16 2.</_></rects>
      <tilted>0</tilted></_>
    <_>
      <rects>
        <_>
          18 3 2 29 -1.</_>
        <_>
          19 3 1 29 2.</_></rects>
      <tilted>0</tilted></_></features></cascade>
</opencv_storage>
